GIS
1
0.0
2
ENTAILMENT
NONENTAILMENT
2
3
49 0 1
52
BagOfWordsScoring_3
BagOfWordsScoring_4
BagOfWordsScoring_5
BagOfLemmasScoring_2
BagOfDepsPosScoring_10
BagOfDepsPosScoring_11
BagOfLemmasScoring_0
BagOfLemmasScoring_1
BagOfDepsScoring_6
BagOfDepsScoring_5
BagOfDepsScoring_4
BagOfDepsScoring_3
TreeSkeletonScoring_2
BagOfDepsScoring_9
TreeSkeletonScoring_1
BagOfDepsScoring_8
TreeSkeletonScoring_0
BagOfDepsScoring_7
TreeSkeletonScoring_6
TreeSkeletonScoring_5
TreeSkeletonScoring_4
TreeSkeletonScoring_3
BagOfDepsScoring_10
BagOfDepsScoring_11
TreeSkeletonScoring_9
TreeSkeletonScoring_8
TreeSkeletonScoring_7
BagOfDepsScoring_0
BagOfDepsScoring_1
BagOfDepsScoring_2
BagOfDepsPosScoring_9
BagOfDepsPosScoring_7
BagOfDepsPosScoring_8
BagOfDepsPosScoring_5
BagOfDepsPosScoring_6
BagOfLexesPosScoring_0
BagOfDepsPosScoring_3
BagOfLexesPosScoring_1
BagOfDepsPosScoring_4
BagOfDepsPosScoring_1
BagOfDepsPosScoring_2
BagOfDepsPosScoring_0
BagOfWordsScoring_0
BagOfWordsScoring_1
TreeSkeletonScoring_12
BagOfWordsScoring_2
TreeSkeletonScoring_13
TreeSkeletonScoring_14
TreeSkeletonScoring_15
BagOfWordsScoring_6
TreeSkeletonScoring_10
TreeSkeletonScoring_11
1.0850848221802354
-2.102038186753568
-1.4929986287881682
4.51981088277776
-1.9086912412701291
7.487735365354509
1.1152136550308673
-1.6241960335090453
-2.964847100686089
4.057902319248917
0.7396474513156428
-1.150543113037755
2.868192276184974
-9.277883256571304
-2.918282314801984
6.391492753132405
0.43264988964224144
-1.0886922275264705
0.07678718660064161
-0.3695639934251293
0.39033021967925363
-1.5439605251394042
1.3272737551597467E-4
0.07648459387615097
2.9007215280211773
-6.301079167942591
0.2575591990319432
-1.109346221680293
-1.9855141267248564
2.887558615545282
0.38211737630421444
-2.523175743034605
1.2977050083553414
-6.5095974854404925
-0.45147330865635615
2.5109938188018956
-0.06216650767489204
0.4096712781582623
0.8948212980301962
-3.920082807183556
6.002009028019088
-38.396521069824914
2.868192276184974
-9.277883256571304
-2.918282314801984
6.391492753132405
0.43264988964224144
-1.0886922275264705
-0.45147330865635615
2.5109938188018956
1.2977050083553414
-6.5095974854404925
0.38211737630421444
-2.523175743034605
-0.7412473808364813
2.391329186611016
-1.6396890512130704
2.1960333131175953
3.0196457927949334
-5.509761995810732
1.937231432522794
-4.5308043542054826
1.1728376898834025
-1.6552561643816868
-0.7423169951786529
1.091920133384093
1.267362155049387
-2.2856538702142517
-0.5564938743425107
0.8234481130463489
-2.0879404521563307
3.5602937315425836
-0.09269105314115011
0.44226302316205446
-2.8388467429088884
11.499186625032685
-0.4812540927166858
1.7219886288922297
1.2043928550753316
-2.0579200354931357
-3.1371709568058237
4.895485536214145
2.9007215280211773
-6.301079167942591
1.1139248748309902
-2.73386135910745
0.39033021967925363
-1.5439605251394042
0.8948212980301962
-3.920082807183556
6.002009028019088
-38.396521069824914
-1.812987720761938
1.9196364675989241
0.7396474513156428
-1.150543113037755
-1.9855141267248564
2.887558615545282
