GIS
1
0.0
2
ENTAILMENT
NONENTAILMENT
1
55 0 1
55
BagOfLemmasScoring_2
BagOfDepsPosScoring_10
BagOfDepsPosScoring_11
BagOfLemmasScoring_0
BagOfLemmasScoring_1
BagOfDepsScoring_6
BagOfDepsScoring_5
BagOfDepsScoring_4
BagOfDepsScoring_3
TreeSkeletonScoring_2
BagOfDepsScoring_9
TreeSkeletonScoring_1
BagOfDepsScoring_8
TreeSkeletonScoring_0
BagOfDepsScoring_7
TreeSkeletonScoring_6
TreeSkeletonScoring_5
TreeSkeletonScoring_4
TreeSkeletonScoring_3
BagOfDepsScoring_10
TreeSkeletonScoring_9
BagOfDepsScoring_11
TreeSkeletonScoring_8
TreeSkeletonScoring_7
BagOfDepsScoring_0
BagOfDepsScoring_1
BagOfDepsScoring_2
BagOfDepsPosScoring_9
BagOfLexesPosScoring_4
BagOfDepsPosScoring_7
BagOfDepsPosScoring_8
BagOfLexesPosScoring_2
BagOfDepsPosScoring_5
BagOfLexesPosScoring_3
BagOfDepsPosScoring_6
BagOfLexesPosScoring_0
BagOfDepsPosScoring_3
BagOfLexesPosScoring_1
BagOfDepsPosScoring_4
BagOfDepsPosScoring_1
BagOfDepsPosScoring_2
BagOfDepsPosScoring_0
BagOfWordsScoring_0
BagOfWordsScoring_1
TreeSkeletonScoring_12
BagOfWordsScoring_2
TreeSkeletonScoring_13
BagOfWordsScoring_3
TreeSkeletonScoring_14
BagOfWordsScoring_4
TreeSkeletonScoring_15
BagOfWordsScoring_5
BagOfWordsScoring_6
TreeSkeletonScoring_10
TreeSkeletonScoring_11
0.5601385036344886
-0.795118315495968
-0.5680760035672523
0.8761228582462831
0.0465947276635111
-0.07837596694186882
0.397736429040848
-0.5226045080630723
0.03167692670987502
-0.034245893725768674
-0.04754701295667245
0.06524029062457166
-0.34097795690545757
0.5107448191078087
-0.0014194421069457985
0.010094250744961866
-0.19128043887506477
0.29159188883096143
-0.05048320497272349
0.07241165609477287
0.40881171866527355
-0.7451196868794555
0.008597365982640486
-0.011102013164129083
-0.31501855038073057
0.47874147494712366
0.04663837913630771
-0.0654958067805457
-1.1282515611244046
1.4039584179639102
-0.3185006684784438
0.5727030823422169
0.15244150452609054
-0.2387416316236151
0.08317461279771703
-0.13856558862619797
0.038948989207930336
-0.05361218084903469
-0.20299189048367897
0.3254689467582027
-0.34097795690545757
0.5107448191078087
-1.0544254535082465
1.8503351601959965
-0.0014194421069457985
0.010094250744961866
-0.19128043887506477
0.29159188883096143
0.08317461279771703
-0.13856558862619797
0.15244150452609054
-0.2387416316236151
-0.3185006684784438
0.5727030823422169
-0.27605230564580463
0.4905673728531742
0.20600672403407205
-0.27233677622143165
-0.3369087683658132
0.41316965573989994
1.5183880218373045
-2.191287994660046
-0.23871497814314335
0.3048426790819386
0.29455039959391793
-0.41613301245077894
0.32047205043681776
-0.42055115923158287
0.1503514087370114
-0.19531181806849782
-0.05762954172532037
0.0788350842914795
-0.22582181817913186
0.32228798924453755
0.11964939929520571
-0.15626226428202455
0.3332137540632237
-0.4273226527074241
0.32217810863716734
-0.49623950293514535
1.3954101223501532
-2.4973190040389555
-0.1302294081406901
0.23627377778255612
1.0429587645780953
-1.4536531005408913
0.34172535905429957
-0.43504247821700703
-0.31501855038073057
0.47874147494712366
0.4313780331512606
-0.644529587193825
0.40881171866527355
-0.7451196868794555
-1.2723217547492733
1.5730801133524803
-0.20299189048367897
0.3254689467582027
-1.2317299924512943
1.0470512024426788
-1.0544254535082465
1.8503351601959965
-1.143631474855362
1.3307903084540882
-1.060313478986617
1.20604343387437
-0.04754701295667245
0.06524029062457166
-1.1282515611244046
1.4039584179639102
