GIS
1
0.0
2
ENTAILMENT
NONENTAILMENT
1
41 0 1
41
BagOfLemmasScoring_2
BagOfDepsPosScoring_10
BagOfDepsPosScoring_11
BagOfLemmasScoring_0
BagOfLemmasScoring_1
BagOfDepsPosScoring_9
BagOfDepsPosScoring_7
BagOfDepsPosScoring_8
BagOfLexesPosScoring_2
BagOfDepsPosScoring_5
BagOfDepsPosScoring_6
BagOfLexesPosScoring_0
BagOfDepsPosScoring_3
BagOfLexesPosScoring_1
BagOfDepsPosScoring_4
BagOfDepsPosScoring_1
BagOfDepsPosScoring_2
BagOfDepsPosScoring_0
TreeSkeletonScoring_2
TreeSkeletonScoring_1
TreeSkeletonScoring_0
BagOfWordsScoring_0
BagOfWordsScoring_1
TreeSkeletonScoring_12
TreeSkeletonScoring_6
BagOfWordsScoring_2
TreeSkeletonScoring_13
TreeSkeletonScoring_5
BagOfWordsScoring_3
TreeSkeletonScoring_14
TreeSkeletonScoring_4
BagOfWordsScoring_4
TreeSkeletonScoring_15
TreeSkeletonScoring_3
BagOfWordsScoring_5
BagOfWordsScoring_6
TreeSkeletonScoring_9
TreeSkeletonScoring_10
TreeSkeletonScoring_8
TreeSkeletonScoring_11
TreeSkeletonScoring_7
0.5184845793390906
-0.7352021799305558
-0.7083215798798059
1.0930236271324625
-0.15103629038188013
0.274362886737407
0.4497171317269611
-0.5907255406592236
0.016496315787494463
-0.014502086079891095
-0.24894782068996063
0.4467190064580491
-0.5091878947023507
0.621869794755789
1.6368239716391797
-2.365956002070372
0.23640795879700624
-0.3123809572049347
0.2916726455804411
-0.407913159919982
0.16822977688860621
-0.21859437553024433
-0.09517840711393825
0.12934158785232763
-0.257280502106397
0.36697153995519954
0.18655250438591334
-0.24415561280206352
0.4531208146393458
-0.5803401094670788
0.3521716153995883
-0.5416211011365272
1.4728789702780822
-2.637536838207661
-0.10765513612610032
0.20050008335959038
-0.053056726727364154
0.07621683514641867
0.00818795792959297
-0.010291500116797248
0.0454624963965869
-0.06363416307689754
1.1420438169989162
-1.5922591120369285
0.28095870367057857
-0.3570074417053479
-0.793589186194512
1.2039181899290348
-0.7819967980112507
1.3984991309586212
0.2259760254722721
-0.3244859989829664
0.6812815242551028
-1.2448395328208572
0.11380158440159101
-0.1753565002233785
-1.3238579243295505
1.635790850743512
-0.27531333763634247
0.4423105702036733
0.24047064786138658
-0.42292317912363936
-1.2917499777937973
1.0978319028420027
-1.6565941780700526
2.9153420294720003
0.04288113999666324
-0.05895961118201961
-1.1967513703454493
1.3920664073620828
-1.1144757563674395
1.267502182566452
-0.6740199939557392
1.003900085868071
-0.18139615703051273
0.2471523369145572
-0.09929275938611548
0.1466454650321643
-1.6329633720224146
2.0324450933813223
-0.35398860470396853
0.5389631784385438
