GIS
1
0.0
2
ENTAILMENT
NONENTAILMENT
1
13 0 1
13
BagOfLemmasScoring_2
BagOfLexesPosScoring_2
BagOfLexesPosScoring_0
BagOfLexesPosScoring_1
BagOfLemmasScoring_0
BagOfLemmasScoring_1
BagOfWordsScoring_0
BagOfWordsScoring_1
BagOfWordsScoring_2
BagOfWordsScoring_3
BagOfWordsScoring_4
BagOfWordsScoring_5
BagOfWordsScoring_6
0.9070523202806487
-1.311300397121724
0.675666173756755
-0.8934314088479909
-1.1763911176905202
1.5744961069569217
0.4796781245250754
-0.6273451749354096
0.6026748593857868
-0.78930697850045
0.5871244287888622
-0.6970259471097654
1.6745558402736056
-2.3313040305239627
0.04366021005449089
-0.04698242460188854
-2.5163677939070164
4.011043340229663
-1.4762117135375534
1.823744354028914
-1.547525378703993
1.31365313977618
-1.4216425327228464
1.6515052791437854
-1.328209162183125
1.50847698544738
