GIS
1
0.0
2
ENTAILMENT
NONENTAILMENT
1
11 0 1
11
BagOfLemmasScoring_2
BagOfWordsScoring_0
BagOfWordsScoring_1
BagOfWordsScoring_2
BagOfWordsScoring_3
BagOfWordsScoring_4
BagOfWordsScoring_5
BagOfLexesPosScoring_0
BagOfWordsScoring_6
BagOfLemmasScoring_0
BagOfLemmasScoring_1
0.5943525815000285
-0.8488606099390785
1.4556699300684945
-2.0144967812463728
0.001988467311170087
0.008764540453056172
-2.011963106150118
3.2250166704230705
-1.4398084548433592
1.775787406797414
-1.5261587870553894
1.2903828379528461
-1.3958521490204863
1.6172811646654095
0.2454615903558434
-0.31236161477553215
-1.3012372805278893
1.4748316498545992
0.5194939416195672
-0.6737526237951643
0.5157283164008937
-0.6098214941212743
